%YAML:1.0
my_nn: !!opencv-ml-ann-mlp
   layer_sizes: !!opencv-matrix
      rows: 1
      cols: 3
      dt: i
      data: [ 8, 8, 1 ]
   activation_function: SIGMOID_SYM
   f_param1: 6.6666666666666663e-001
   f_param2: 1.7159000000000000e+000
   min_val: -9.4999999999999996e-001
   max_val: 9.4999999999999996e-001
   min_val1: -9.7999999999999998e-001
   max_val1: 9.7999999999999998e-001
   training_params:
      train_method: RPROP
      dw0: 1.0000000000000000e-002
      dw_plus: 1.2000000000000000e+000
      dw_minus: 5.0000000000000000e-001
      dw_min: 0.
      dw_max: 50.
      term_criteria: { epsilon:1.1920928955078125e-007, iterations:1000 }
   input_scale: [ 1.0769259955938175e+000, -8.0839276290221351e-001,
       1.6710655233739815e+000, -1.9998301743230680e+000,
       8.2205777134185265e+000, -2.0774809936155170e+000,
       1.0414018416442430e+000, 3.1940188041496618e+000,
       1.0375074361212502e+000, -7.4219070368711249e-001,
       2.0388424671596721e+000, -8.4022103348424937e-001,
       6.0969257991464321e-001, -8.5176561411181362e-001,
       6.3739624373393991e-002, 6.8605027132637789e-003 ]
   output_scale: [ 1., 0. ]
   inv_output_scale: [ 1., 0. ]
   weights:
      - [ -2.0463578164577739e-001, 1.3086769994932371e-002,
          7.6092258580048103e-002, -3.2889983231121528e-001,
          -1.2671078089735811e-002, 1.4089638648363387e-001,
          9.6697465877786404e-001, 1.5919225506782411e-001,
          1.4059726377379264e-001, 8.2714428959186251e-002,
          -1.4498050413647762e-001, 1.1791951126840008e-001,
          -2.9944371348625509e+000, -3.1902035969598250e+000,
          -5.9407730163062354e-002, -2.5308824372370742e-002,
          1.4197164382995156e-001, 3.1079945976063530e-002,
          1.6098050762993113e-001, -4.3350958846944421e+000,
          4.1147199675641483e-001, 2.1101052939338877e-001,
          -2.7185225096032734e-001, 2.3834457356558675e-001,
          1.7922839408827149e-002, 2.4024999223593260e-002,
          -4.0045580903628197e-001, -1.1000828072625746e+000,
          3.0181742619719426e-001, 2.7017475310668032e-002,
          2.2167131914747398e-001, -9.7283642276215453e-004,
          2.6448294798337685e-001, 1.2269620265711470e-001,
          3.7106734623355969e-001, 1.7881107058276762e+000,
          9.6673975028006542e-001, -9.6074797717166316e-002,
          2.4077146622874586e+000, 1.8864777600981314e-001,
          -1.9952000838821324e-001, -1.3577902390258456e-001,
          -9.3122881019377421e-002, 4.0739018543549865e-001,
          2.5963487187780721e-001, 1.6646968280545330e-001,
          9.0968666675664958e-002, -1.4503281364848369e-001,
          2.1808118900593387e-001, -1.9419871665213129e-001,
          -5.4698742505935843e-002, 8.5452932565675588e-001,
          1.7077844543409537e+000, 1.4431253124161680e+000,
          -2.0632754751708724e+000, -6.7648923924059218e-002,
          3.6551483921538525e-001, 2.1479114121008072e-001,
          -3.9220206006018050e+000, -1.7648945905393091e+001,
          -6.6952363265848746e+001, -8.6760896373835450e+001,
          -1.2078710816762790e+000, -1.8726684726175138e-001,
          1.8125392808592034e-001, 5.8876279468597859e-002,
          -1.9117749176616691e-001, -6.9901962095714305e+000,
          -2.3942034986011902e+000, -2.9698207886928696e+000,
          4.3170478372359011e-001, 1.8745979071751170e-001 ]
      - [ 9.4127762960132544e-001, -1.0186380077804751e+000,
          3.3220781240708064e-001, -3.0118039275713970e-001,
          7.6506759273457225e-001, -7.0678187797333791e-001,
          2.9946525908470917e-001, -4.3484880176101692e-001,
          -1.2159959179089971e-001 ]
