%YAML:1.0
my_nn: !!opencv-ml-ann-mlp
   layer_sizes: !!opencv-matrix
      rows: 1
      cols: 3
      dt: i
      data: [ 7, 7, 1 ]
   activation_function: SIGMOID_SYM
   f_param1: 0.6666666666666666
   f_param2: 1.7159000000000000
   min_val: -0.9500000000000000
   max_val: 0.9500000000000000
   min_val1: -0.9800000000000000
   max_val1: 0.9800000000000000
   training_params:
      train_method: RPROP
      dw0: 0.0100000000000000
      dw_plus: 1.2000000000000000
      dw_minus: 0.5000000000000000
      dw_min: 0.
      dw_max: 50.
      term_criteria: { epsilon:1.1920928955078125e-07, iterations:1000 }
   input_scale: [ 0.7003302341782260, -1.3296387434315542,
       2.1642563449524439, 0.8560357306926702, 0.7408996156342708,
       1.3868123357541489, 0.1353118364736292, -0.0683877976819868,
       1.2292743786096092, -6.0221067750657236e-03, 3.2009651101460990,
       -1.7718083165842813, 0.9944512115218558, 0.6380706673620853 ]
   output_scale: [ 0.5263157894736842, 0.5000000000000000 ]
   inv_output_scale: [ 1.8999999999999999, -0.9500000000000000 ]
   weights:
      - [ 0.2006529716960679, 0.0321875369020063, -0.0160176342676096,
          0.5297401141957708, -0.2856835396078414, 1.1198193420616260,
          -0.3604289269798496, -1.7798604864817442, 1.2559397707365230,
          -0.0590900998396567, 1.4575094172690624, 0.1769847710098775,
          -5.9438445188349061, 0.3663462682575416, 0.3186934273593068,
          0.1999185758116353, 0.5801856517200662, -0.2379354425866791,
          -0.0639113291852392, 4.1440902312906829, 0.3440882658502725,
          16.9153671635311831, 1.8349686272807486, -1.0781179074062774,
          -21.3336860876370835, 16.7103528555028369,
          -29.3076956862250988, 1.4585578667063479, 0.2732823336277902,
          -0.1851591163923746, 0.6805694012683846, 0.0382246857946320,
          -0.6553848290983008, 5.4636999136835875, 0.3348845659258708,
          -0.3098555874913745, 0.0900041489538405, -0.2841645920265581,
          0.4182848236046199, 0.8097211061625379, -0.3853811972277331,
          0.2197832474004003, 0.3715733561029182, -0.0548914422749953,
          0.2270308132089615, 0.5343932811408009, -0.2360212693323352,
          -0.7093938786263982, 0.2226086382632876,
          6.2832303230065984e-04, -0.0183946145190168,
          -0.3132333425967364, 0.5183472046613261, 0.0169996248035905,
          0.6340984182281707, -0.2558420471465324 ]
      - [ 1.0257029857554625, 0.7252916097152821, -0.5794280263764932,
          -1.2481529100213420, -0.8686803740178273, -0.2589718976341233,
          0.7007849884010638, -0.3519629609869219 ]
