%YAML:1.0
my_nn: !!opencv-ml-ann-mlp
   layer_sizes: !!opencv-matrix
      rows: 1
      cols: 3
      dt: i
      data: [ 7, 7, 1 ]
   activation_function: SIGMOID_SYM
   f_param1: 6.6666666666666663e-001
   f_param2: 1.7159000000000000e+000
   min_val: -9.4999999999999996e-001
   max_val: 9.4999999999999996e-001
   min_val1: -9.7999999999999998e-001
   max_val1: 9.7999999999999998e-001
   training_params:
      train_method: RPROP
      dw0: 1.0000000000000000e-002
      dw_plus: 1.2000000000000000e+000
      dw_minus: 5.0000000000000000e-001
      dw_min: 0.
      dw_max: 50.
      term_criteria: { epsilon:1.1920928955078125e-007, iterations:1000 }
   input_scale: [ 7.0378563315348752e-001, -1.1368483927539335e+000,
       2.3445832243606111e+000, 7.6335913635148278e-001,
       6.9365677281166993e-001, 1.1862405410333092e+000,
       9.1914134582927565e-001, -5.1506207874649412e-001,
       1.3203758763760234e+000, -8.3605637437491123e-003,
       3.5211047533228088e+000, -1.4870065373325803e+000,
       9.8909288514188143e-001, 5.7022133750316684e-001 ]
   output_scale: [ 1., 0. ]
   inv_output_scale: [ 1., 0. ]
   weights:
      - [ 4.3284409114264033e-001, 3.0558154794517609e+000,
          2.0600582946003843e-001, -3.7296248662686859e-001,
          -1.1363329099785130e-001, 2.4792682106188213e-001,
          1.4710155216866685e-001, 1.8968609018891944e+000,
          5.1011770393093769e+000, -2.4989151652786998e-001,
          1.1430588758902318e+000, 3.7767640692534421e-001,
          -1.1895989171231705e+000, -1.1799964900239025e-001,
          8.0091970064034097e+000, 3.5367204748518276e+001,
          -5.9977469652294702e-001, 1.2959159964176532e+000,
          -1.5207785240371319e-001, -3.9492436568045721e+000,
          2.6357430049182762e-001, -2.1216175619242712e+000,
          -5.1759217918578238e-001, -4.2865601526510944e-001,
          -1.8881708121985144e-001, -1.4812858541716994e-001,
          1.3942339604877494e+000, -1.0299472115054522e+000,
          6.0284034925317191e-002, 8.7951383161576768e-001,
          1.4819071647473175e-001, 5.3767120298548283e+000,
          5.5852555211064754e+000, -9.0929213241765144e-002,
          -5.7788504272027988e-002, -4.5339050644117762e+000,
          2.4563048519956676e+000, -1.5759235425323090e-001,
          -7.9128807456592387e-001, 3.0761957335524098e-001,
          5.2662459339602596e-001, -4.5348519138893695e-001,
          7.4322371301124912e-001, 7.1332133631330406e+000,
          8.3639292043991176e-002, -4.9866672914680854e-001,
          -2.9654712680115780e-001, 3.1876646880760411e-002,
          1.0827451723185504e-001, -4.1151769193332663e+000,
          3.8873579490678178e+000, -2.6091833506382556e-001,
          1.1315562385370654e+000, -1.5838413633418020e+000,
          2.9360076778196426e-001, 2.1956698412322337e-001 ]
      - [ -5.9944609712241448e-001, 1.2506767799498883e-001,
          -6.7326641986339020e-001, -4.7627635543415392e-001,
          5.1520370604913512e-001, -4.5103469351853936e-001,
          6.9385711741667022e-001, 4.5546486548629517e-001 ]
